-109
270
-262
-149
-156
-220
-187
11
-12
-165
198
-238
-58
-296
27
0
-139
-263
-61
-31
-304
-123
-136
-44
259
2
-88
145
-99
-196
-52
-267
-75
-123
82
34
-343
-206
-141
-293
-115
-102
-69
261
132
-40
-204
-37
-173
-132
-106
-210
220
-279
-11
-47
-101
-148
-221
-240
-241
-254
-133
76
-125
-239
-156
-208
134
-115
76
-125
-37
-142
-150
285
56
-19
106
-97
-318
-97
-259
-220
-118
-174
26
-177
109
-71
-84
7
45
-175
-3
283
-55
-41
-39
256
-263
-181
-215
-167
-151
-249
-224
27
-135
-117
-172
-231
-166
-147
494
-190
-93
-156
-302
34
5
276
-20
-419
-317
-56
-194
245
-258
-46
-247
-249
32
-52
-220
-57
218
-36
-244
-47
170
-215
107
-121
18
60
-199
-87
-94
-43
-178
93
-259
-8
-91
-124
1
24
-262
-85
-151
-6
20
-284
-56
-140
-157
284
-94
-211
-256
-52
246
-54
-213
-53
159
119
-149
29
55
123
-28
-247
-80
-100
64
-3
54
-148
-371
-115
-220
-104
147
-243
-131
107
-264
-155
-157
-143
42
186
-197
-103
203
0
-301
-294
-313
-241
-316
-129
-153
-83
94
-140
-272
-64
336
-120
-131
-21
-139
-234
-121
-132
-196
-72
-114
-260
-23
-22
-107
16
-100
15
-193
23
56
-84
144
-73
31
-7
-189
-109
-184
-64
-97
-155
-53
-160
2
-183
